digraph Tree {
node [shape=box, style="filled, rounded", color="black", fontname="helvetica"] ;
edge [fontname="helvetica"] ;
0 [label="AGE <= 1.5\ngini = 0.947\nsamples = 19\nvalue = [1, 1, 1, 1, 1, 1, 1, 1, 1, 1, 1, 1, 1, 1\n1, 1, 1, 1, 1]", fillcolor="#ffffff"] ;
1 [label="FLOOR <= 5.5\ngini = 0.5\nsamples = 2\nvalue = [0, 0, 0, 0, 0, 0, 0, 0, 1, 0, 0, 0, 1, 0\n0, 0, 0, 0, 0]", fillcolor="#ffffff"] ;
0 -> 1 [labeldistance=2.5, labelangle=45, headlabel="True"] ;
2 [label="gini = 0.0\nsamples = 1\nvalue = [0, 0, 0, 0, 0, 0, 0, 0, 0, 0, 0, 0, 1, 0\n0, 0, 0, 0, 0]", fillcolor="#5b39e5"] ;
1 -> 2 ;
3 [label="gini = 0.0\nsamples = 1\nvalue = [0, 0, 0, 0, 0, 0, 0, 0, 1, 0, 0, 0, 0, 0\n0, 0, 0, 0, 0]", fillcolor="#39e5da"] ;
1 -> 3 ;
4 [label="ROOM <= 1.5\ngini = 0.941\nsamples = 17\nvalue = [1, 1, 1, 1, 1, 1, 1, 1, 0, 1, 1, 1, 0, 1\n1, 1, 1, 1, 1]", fillcolor="#ffffff"] ;
0 -> 4 [labeldistance=2.5, labelangle=-45, headlabel="False"] ;
5 [label="FLOOR <= 4.0\ngini = 0.5\nsamples = 2\nvalue = [0, 0, 0, 1, 1, 0, 0, 0, 0, 0, 0, 0, 0, 0\n0, 0, 0, 0, 0]", fillcolor="#ffffff"] ;
4 -> 5 ;
6 [label="gini = 0.0\nsamples = 1\nvalue = [0, 0, 0, 0, 1, 0, 0, 0, 0, 0, 0, 0, 0, 0\n0, 0, 0, 0, 0]", fillcolor="#72e539"] ;
5 -> 6 ;
7 [label="gini = 0.0\nsamples = 1\nvalue = [0, 0, 0, 1, 0, 0, 0, 0, 0, 0, 0, 0, 0, 0\n0, 0, 0, 0, 0]", fillcolor="#a9e539"] ;
5 -> 7 ;
8 [label="ROOM <= 2.5\ngini = 0.933\nsamples = 15\nvalue = [1, 1, 1, 0, 0, 1, 1, 1, 0, 1, 1, 1, 0, 1\n1, 1, 1, 1, 1]", fillcolor="#ffffff"] ;
4 -> 8 ;
9 [label="gini = 0.0\nsamples = 1\nvalue = [0, 0, 0, 0, 0, 0, 0, 0, 0, 0, 0, 0, 0, 0\n1, 0, 0, 0, 0]", fillcolor="#c839e5"] ;
8 -> 9 ;
10 [label="HOUSE <= 3.5\ngini = 0.929\nsamples = 14\nvalue = [1, 1, 1, 0, 0, 1, 1, 1, 0, 1, 1, 1, 0, 1\n0, 1, 1, 1, 1]", fillcolor="#ffffff"] ;
8 -> 10 ;
11 [label="gini = 0.0\nsamples = 1\nvalue = [0, 0, 0, 0, 0, 0, 0, 0, 0, 0, 0, 0, 0, 0\n0, 0, 0, 0, 1]", fillcolor="#e54a39"] ;
10 -> 11 ;
12 [label="FLOOR <= 1.5\ngini = 0.923\nsamples = 13\nvalue = [1, 1, 1, 0, 0, 1, 1, 1, 0, 1, 1, 1, 0, 1\n0, 1, 1, 1, 0]", fillcolor="#ffffff"] ;
10 -> 12 ;
13 [label="HOUSE <= 10.5\ngini = 0.75\nsamples = 4\nvalue = [0, 0, 1, 0, 0, 1, 0, 0, 0, 0, 0, 0, 0, 0\n0, 1, 0, 1, 0]", fillcolor="#ffffff"] ;
12 -> 13 ;
14 [label="gini = 0.0\nsamples = 1\nvalue = [0, 0, 0, 0, 0, 1, 0, 0, 0, 0, 0, 0, 0, 0\n0, 0, 0, 0, 0]", fillcolor="#3ce539"] ;
13 -> 14 ;
15 [label="ROOM <= 4.5\ngini = 0.667\nsamples = 3\nvalue = [0, 0, 1, 0, 0, 0, 0, 0, 0, 0, 0, 0, 0, 0\n0, 1, 0, 1, 0]", fillcolor="#ffffff"] ;
13 -> 15 ;
16 [label="AGE <= 7.0\ngini = 0.5\nsamples = 2\nvalue = [0, 0, 1, 0, 0, 0, 0, 0, 0, 0, 0, 0, 0, 0\n0, 1, 0, 0, 0]", fillcolor="#ffffff"] ;
15 -> 16 ;
17 [label="gini = 0.0\nsamples = 1\nvalue = [0, 0, 0, 0, 0, 0, 0, 0, 0, 0, 0, 0, 0, 0\n0, 1, 0, 0, 0]", fillcolor="#e539cb"] ;
16 -> 17 ;
18 [label="gini = 0.0\nsamples = 1\nvalue = [0, 0, 1, 0, 0, 0, 0, 0, 0, 0, 0, 0, 0, 0\n0, 0, 0, 0, 0]", fillcolor="#dfe539"] ;
16 -> 18 ;
19 [label="gini = 0.0\nsamples = 1\nvalue = [0, 0, 0, 0, 0, 0, 0, 0, 0, 0, 0, 0, 0, 0\n0, 0, 0, 1, 0]", fillcolor="#e5395e"] ;
15 -> 19 ;
20 [label="AGE <= 3.5\ngini = 0.889\nsamples = 9\nvalue = [1, 1, 0, 0, 0, 0, 1, 1, 0, 1, 1, 1, 0, 1\n0, 0, 1, 0, 0]", fillcolor="#ffffff"] ;
12 -> 20 ;
21 [label="gini = 0.0\nsamples = 1\nvalue = [1, 0, 0, 0, 0, 0, 0, 0, 0, 0, 0, 0, 0, 0\n0, 0, 0, 0, 0]", fillcolor="#e58139"] ;
20 -> 21 ;
22 [label="FLOOR <= 2.5\ngini = 0.875\nsamples = 8\nvalue = [0, 1, 0, 0, 0, 0, 1, 1, 0, 1, 1, 1, 0, 1\n0, 0, 1, 0, 0]", fillcolor="#ffffff"] ;
20 -> 22 ;
23 [label="gini = 0.0\nsamples = 1\nvalue = [0, 0, 0, 0, 0, 0, 0, 0, 0, 0, 0, 0, 0, 0\n0, 0, 1, 0, 0]", fillcolor="#e53995"] ;
22 -> 23 ;
24 [label="HOUSE <= 6.0\ngini = 0.857\nsamples = 7\nvalue = [0, 1, 0, 0, 0, 0, 1, 1, 0, 1, 1, 1, 0, 1\n0, 0, 0, 0, 0]", fillcolor="#ffffff"] ;
22 -> 24 ;
25 [label="gini = 0.0\nsamples = 1\nvalue = [0, 0, 0, 0, 0, 0, 0, 0, 0, 1, 0, 0, 0, 0\n0, 0, 0, 0, 0]", fillcolor="#39bae5"] ;
24 -> 25 ;
26 [label="HOUSE <= 9.5\ngini = 0.833\nsamples = 6\nvalue = [0, 1, 0, 0, 0, 0, 1, 1, 0, 0, 1, 1, 0, 1\n0, 0, 0, 0, 0]", fillcolor="#ffffff"] ;
24 -> 26 ;
27 [label="gini = 0.0\nsamples = 1\nvalue = [0, 0, 0, 0, 0, 0, 0, 0, 0, 0, 0, 1, 0, 0\n0, 0, 0, 0, 0]", fillcolor="#394de5"] ;
26 -> 27 ;
28 [label="HOUSE <= 11.5\ngini = 0.8\nsamples = 5\nvalue = [0, 1, 0, 0, 0, 0, 1, 1, 0, 0, 1, 0, 0, 1\n0, 0, 0, 0, 0]", fillcolor="#ffffff"] ;
26 -> 28 ;
29 [label="gini = 0.0\nsamples = 1\nvalue = [0, 0, 0, 0, 0, 0, 0, 1, 0, 0, 0, 0, 0, 0\n0, 0, 0, 0, 0]", fillcolor="#39e5a3"] ;
28 -> 29 ;
30 [label="FLOOR <= 4.5\ngini = 0.75\nsamples = 4\nvalue = [0, 1, 0, 0, 0, 0, 1, 0, 0, 0, 1, 0, 0, 1\n0, 0, 0, 0, 0]", fillcolor="#ffffff"] ;
28 -> 30 ;
31 [label="gini = 0.0\nsamples = 1\nvalue = [0, 0, 0, 0, 0, 0, 0, 0, 0, 0, 0, 0, 0, 1\n0, 0, 0, 0, 0]", fillcolor="#9239e5"] ;
30 -> 31 ;
32 [label="FLOOR <= 5.5\ngini = 0.667\nsamples = 3\nvalue = [0, 1, 0, 0, 0, 0, 1, 0, 0, 0, 1, 0, 0, 0\n0, 0, 0, 0, 0]", fillcolor="#ffffff"] ;
30 -> 32 ;
33 [label="ROOM <= 7.5\ngini = 0.5\nsamples = 2\nvalue = [0, 1, 0, 0, 0, 0, 0, 0, 0, 0, 1, 0, 0, 0\n0, 0, 0, 0, 0]", fillcolor="#ffffff"] ;
32 -> 33 ;
34 [label="gini = 0.0\nsamples = 1\nvalue = [0, 0, 0, 0, 0, 0, 0, 0, 0, 0, 1, 0, 0, 0\n0, 0, 0, 0, 0]", fillcolor="#3983e5"] ;
33 -> 34 ;
35 [label="gini = 0.0\nsamples = 1\nvalue = [0, 1, 0, 0, 0, 0, 0, 0, 0, 0, 0, 0, 0, 0\n0, 0, 0, 0, 0]", fillcolor="#e5b439"] ;
33 -> 35 ;
36 [label="gini = 0.0\nsamples = 1\nvalue = [0, 0, 0, 0, 0, 0, 1, 0, 0, 0, 0, 0, 0, 0\n0, 0, 0, 0, 0]", fillcolor="#39e56d"] ;
32 -> 36 ;
}